{
  "input_nodes": 6,
  "hidden_nodes": 12,
  "output_nodes": 3,
  "weights_ih": {
    "rows": 12,
    "cols": 6,
    "data": [
      [
        -0.9112961193743082,
        4.252418907617067,
        2.7283686413707704,
        -2.125048604930989,
        -2.0807975310576143,
        -2.4009967949360664
      ],
      [
        -0.41884253404880867,
        -4.179393990910796,
        10.235000643019212,
        -3.7779969332348355,
        5.417435320068809,
        1.6415452358933604
      ],
      [
        -0.9290220933752569,
        -1.752176103474821,
        -3.840377371122707,
        -5.350107045150997,
        4.640255016897757,
        -0.9299629868399214
      ],
      [
        0.6052138107904019,
        0.6779322495062956,
        -0.6702603089435221,
        -2.1309949846190843,
        6.573518220601105,
        2.3286522064249158
      ],
      [
        -4.401533140182216,
        4.072538117030045,
        0.10587136424400811,
        -1.485321625381554,
        -2.722840745434346,
        -1.0040711293472033
      ],
      [
        -5.871832862513413,
        0.6173354102488664,
        -0.29972621126974774,
        -5.888572779337995,
        0.9709088967158698,
        -2.416419818455829
      ],
      [
        0.09315564244779892,
        -3.211347570833179,
        5.344948083000907,
        -3.5133076439067485,
        1.5920605771418006,
        1.1497154992859464
      ],
      [
        3.0560381083544352,
        -4.638011644900709,
        2.1076713336796566,
        -1.658258910431336,
        -3.4301006092248634,
        -1.8691602199957684
      ],
      [
        -3.4068272097661554,
        0.2852739575802161,
        -3.2282546115745223,
        5.609505211189272,
        6.068889262623345,
        -3.0345078676277866
      ],
      [
        0.26052803456681384,
        1.7393415065885227,
        -1.4809326288036533,
        -3.1009840586498782,
        -1.960146481108866,
        4.558212837613749
      ],
      [
        0.030287226299538943,
        0.530537049629633,
        -4.365997597432117,
        3.9410063932673536,
        -0.866604180864451,
        -8.823979516102119
      ],
      [
        -2.665599097394489,
        -7.443671994658461,
        -1.1353595597416464,
        -4.340330892513458,
        -0.19310330875957826,
        -1.2197998569924704
      ]
    ]
  },
  "weights_ho": {
    "rows": 3,
    "cols": 12,
    "data": [
      [
        -4.507067517002295,
        6.802763785642404,
        6.176791072058322,
        6.866723813886096,
        2.5421179143797157,
        1.075481383777925,
        1.3039997176972844,
        -2.116613462117338,
        1.7273381410269226,
        -0.6385162191323336,
        1.7957208317324946,
        1.3396030699955566
      ],
      [
        -1.3950961829663633,
        0.6825160125750046,
        4.576733505110366,
        4.138710031253092,
        2.1055839791298876,
        3.750259484938372,
        -1.868899218595571,
        3.5269362947069234,
        3.169619289604351,
        1.0148370098668285,
        -1.8095614624550198,
        3.794960443868724
      ],
      [
        -1.5039901028245461,
        -7.354151305636583,
        1.4685277483494439,
        1.5499815025497106,
        6.37413002069434,
        -2.107415252172834,
        -4.589299220844159,
        -0.9662985908631314,
        0.80943891873367,
        0.8849964687041741,
        0.8109361802904191,
        3.448060037334523
      ]
    ]
  },
  "bias_h": {
    "rows": 12,
    "cols": 1,
    "data": [
      [
        -0.9420795537441397
      ],
      [
        -0.6464994681674883
      ],
      [
        1.5862046515924069
      ],
      [
        -0.9314988084615714
      ],
      [
        4.187739386551879
      ],
      [
        1.5319768754628489
      ],
      [
        1.0044936215247573
      ],
      [
        -1.5120173547603075
      ],
      [
        4.542855342319342
      ],
      [
        1.3083700142186654
      ],
      [
        -0.31539755571847394
      ],
      [
        3.7269568747280375
      ]
    ]
  },
  "bias_o": {
    "rows": 3,
    "cols": 1,
    "data": [
      [
        -2.3716930582015148
      ],
      [
        1.5401516700478688
      ],
      [
        4.576722364165054
      ]
    ]
  },
  "learning_rate": 0.1,
  "activation_function": {}
}
