{
  "input_nodes": 6,
  "hidden_nodes": 12,
  "output_nodes": 3,
  "weights_ih": {
    "rows": 12,
    "cols": 6,
    "data": [
      [
        -0.038025302188713916,
        2.5635832773402303,
        -6.427151393011849,
        -2.0072179845384186,
        -3.981741817893458,
        2.594958040636298
      ],
      [
        1.0603439129399952,
        -0.9865490463388124,
        3.4329370503524728,
        -2.3288103517149965,
        -2.728337317192212,
        -2.8618557388821806
      ],
      [
        -2.0340156635178284,
        -1.861214880552733,
        7.968422091500368,
        1.6352633108440873,
        5.842295469466427,
        -2.4721184979697752
      ],
      [
        2.313268530789287,
        -2.419398142545562,
        1.776932702085265,
        -0.024595464587260363,
        -6.875853946130082,
        -1.2175621697438488
      ],
      [
        -1.2840221807173666,
        -4.097637069535609,
        2.454411976777647,
        3.3083745363456023,
        4.119692938641125,
        0.44781514616227636
      ],
      [
        -2.546208111834444,
        -2.0065321947793118,
        0.0744854386469237,
        3.931956794610738,
        4.003076377551108,
        -4.886957762945889
      ],
      [
        1.503463814064145,
        1.8775732103280742,
        -5.351822609613268,
        -1.4266964893148741,
        -6.311052678496158,
        0.3602080764897423
      ],
      [
        -1.2677593255518094,
        0.5796138725982201,
        -1.6246882993944967,
        -2.5883359443332234,
        0.48720204604135603,
        -1.3346871126634954
      ],
      [
        -0.7260005383539432,
        -1.565133934603225,
        -2.0381383641810134,
        3.001706058338997,
        -2.9125189626557506,
        0.6305691125601863
      ],
      [
        -0.768227994956196,
        -4.220077995883163,
        0.7244227914070623,
        4.851506056330314,
        2.208014581480543,
        -0.3642116561904083
      ],
      [
        -3.5948527267202817,
        1.1500386523288428,
        -1.588381849199233,
        -1.0466556822317985,
        1.1251753262402526,
        1.9661911561849856
      ],
      [
        -0.8318520390665791,
        -3.1619801641849166,
        -2.1611720406710555,
        -0.6921757467442586,
        3.4150015908860643,
        4.763158421865533
      ]
    ]
  },
  "weights_ho": {
    "rows": 3,
    "cols": 12,
    "data": [
      [
        1.9493048739780883,
        1.3456145100165429,
        2.8099821378156067,
        -3.8961205869978475,
        2.906611999250748,
        -1.882270364652522,
        -3.740419134745949,
        0.712423389841184,
        -1.3319385531444885,
        0.11882030513132624,
        -1.699677014125126,
        -1.0633489411834425
      ],
      [
        2.5238500781938225,
        1.1515163766187886,
        -0.9874781581597097,
        -3.7288384231513367,
        -0.5932318777423731,
        2.3813843950982982,
        4.081596722801496,
        2.673790976523613,
        -3.87798406026764,
        1.7144110997797837,
        -1.407113219630042,
        -0.15240787081529056
      ],
      [
        2.5727028513395664,
        -1.2057001805876446,
        -3.290397748978463,
        -3.734063583515301,
        0.09332296400501233,
        -6.170192534632787,
        4.12705414962566,
        0.1895241683495536,
        1.592599605623819,
        -4.3470341259583325,
        -2.5370557643480103,
        -1.975572106169815
      ]
    ]
  },
  "bias_h": {
    "rows": 12,
    "cols": 1,
    "data": [
      [
        -0.3545956844604215
      ],
      [
        -2.5400878505481073
      ],
      [
        -1.1183778502894492
      ],
      [
        -1.0816819090002254
      ],
      [
        -0.48213207949122816
      ],
      [
        -4.623683446253238
      ],
      [
        2.336686529135996
      ],
      [
        0.2992989909341577
      ],
      [
        -1.261396995937513
      ],
      [
        -2.1579740416815114
      ],
      [
        -1.2156361127854312
      ],
      [
        -4.194906435957034
      ]
    ]
  },
  "bias_o": {
    "rows": 3,
    "cols": 1,
    "data": [
      [
        -3.4772301913998795
      ],
      [
        -0.7031017586813403
      ],
      [
        0.24996854426008758
      ]
    ]
  },
  "learning_rate": 0.1,
  "activation_function": {}
}
