{
  "input_nodes": 6,
  "hidden_nodes": 12,
  "output_nodes": 3,
  "weights_ih": {
    "rows": 12,
    "cols": 6,
    "data": [
      [
        1.9596486980577215,
        0.3280505927429389,
        -0.20640603979962766,
        6.952530045506735,
        3.7537145368153486,
        -0.23651186297733742
      ],
      [
        1.6992773635716694,
        -3.148440379464436,
        -4.816052712441363,
        3.0485124018795107,
        -3.283798982319981,
        -0.8953900777008741
      ],
      [
        -2.433210902814116,
        -2.88224719859855,
        0.20304812150777607,
        -5.792301278676162,
        1.9761273456334052,
        -5.597474356804196
      ],
      [
        -0.22538827218751908,
        -0.4016268011085196,
        -3.031498489040805,
        -1.2298870626326104,
        -5.317103822058746,
        4.343722108727756
      ],
      [
        4.752706510886807,
        -1.5596577958096918,
        -0.28043969928907664,
        -4.363064149728617,
        2.779042964457748,
        -4.1541204259573306
      ],
      [
        -1.227769484763263,
        -2.7904872827864224,
        -1.9101729533900658,
        -5.34114348490164,
        0.9653239605571236,
        -2.3987108779477833
      ],
      [
        1.158586552213198,
        -1.0405526530663165,
        -3.0741669825855635,
        -0.6922517417118476,
        -2.1568181633453327,
        0.309031022993443
      ],
      [
        -0.7608190261430579,
        -0.5149471369292205,
        -5.210373847114359,
        0.23923573880351018,
        5.86874131473265,
        -2.713914555902796
      ],
      [
        4.295749829695778,
        0.8192170566165684,
        -2.607506258995058,
        -1.6824524077689216,
        0.14700215866806238,
        3.159254638156491
      ],
      [
        1.2353912098775806,
        -1.9234527308602258,
        2.5359834261991283,
        -4.169340697599122,
        0.7480744597853679,
        -3.6308863568275127
      ],
      [
        0.028593890460575366,
        3.4531322704732044,
        -1.4536290817605377,
        5.6057315363888645,
        -0.4053362595268051,
        0.3124860635209421
      ],
      [
        3.8543809819416532,
        -2.3731767550764005,
        -2.589217217849319,
        0.015587378167111143,
        1.4760267958315598,
        0.10148609586746245
      ]
    ]
  },
  "weights_ho": {
    "rows": 3,
    "cols": 12,
    "data": [
      [
        2.5397324400004226,
        -3.2161422612685273,
        1.306162614755568,
        -2.9413156576355255,
        0.15839206243737092,
        -2.978768026413863,
        -6.074151002307669,
        -1.3601707752846217,
        -2.456380958359586,
        1.8424926013150094,
        0.6036651866101168,
        5.836789033269005
      ],
      [
        -0.10669937589891523,
        0.26925023942170645,
        1.6258583181801531,
        3.1234872210587334,
        -0.4354540128209054,
        2.8471255213463174,
        -0.6903169315726013,
        1.584629219513773,
        0.43598578182533543,
        -3.588416451735318,
        0.7865028326067316,
        2.799217346750014
      ],
      [
        -0.8556938866808121,
        3.670245174658454,
        -0.92519528568883,
        3.422761176987842,
        0.8196400579469252,
        -1.48911640050191,
        5.210600315313321,
        1.2244641104552139,
        1.3770644141730728,
        -2.1823160355436064,
        -1.3633156447692847,
        -3.5104968560058194
      ]
    ]
  },
  "bias_h": {
    "rows": 12,
    "cols": 1,
    "data": [
      [
        4.378114482075177
      ],
      [
        2.1781408551741466
      ],
      [
        4.483674754645286
      ],
      [
        1.503138810527986
      ],
      [
        0.16046652389957128
      ],
      [
        4.206067754606849
      ],
      [
        2.4144759178173096
      ],
      [
        0.9334916219288629
      ],
      [
        -2.955482731763948
      ],
      [
        -1.9968233369705881
      ],
      [
        -2.8378978416687337
      ],
      [
        2.8736869264784333
      ]
    ]
  },
  "bias_o": {
    "rows": 3,
    "cols": 1,
    "data": [
      [
        4.607382687380871
      ],
      [
        1.7239691230842267
      ],
      [
        4.4558862078379065
      ]
    ]
  },
  "learning_rate": 0.1,
  "activation_function": {}
}
